digraph Tree {
node [shape=box] ;
0 [label="gendi <= 0.5\nentropy = 0.961\nsamples = 13\nvalue = [5, 8]"] ;
1 [label="entropy = 0.0\nsamples = 2\nvalue = [2, 0]"] ;
0 -> 1 [labeldistance=2.5, labelangle=45, headlabel="True"] ;
2 [label="wenli <= 1.5\nentropy = 0.845\nsamples = 11\nvalue = [3, 8]"] ;
0 -> 2 [labeldistance=2.5, labelangle=-45, headlabel="False"] ;
3 [label="wenli <= 0.5\nentropy = 0.544\nsamples = 8\nvalue = [1, 7]"] ;
2 -> 3 ;
4 [label="entropy = 0.0\nsamples = 1\nvalue = [1, 0]"] ;
3 -> 4 ;
5 [label="entropy = 0.0\nsamples = 7\nvalue = [0, 7]"] ;
3 -> 5 ;
6 [label="chugan <= 0.5\nentropy = 0.918\nsamples = 3\nvalue = [2, 1]"] ;
2 -> 6 ;
7 [label="entropy = 0.0\nsamples = 2\nvalue = [2, 0]"] ;
6 -> 7 ;
8 [label="entropy = 0.0\nsamples = 1\nvalue = [0, 1]"] ;
6 -> 8 ;
}